<?xml version="1.0"?>
<opencv_storage>
<my_svm type_id="opencv-ml-svm">
  <svm_type>C_SVC</svm_type>
  <kernel><type>LINEAR</type></kernel>
  <C>1.0000000000000000e-002</C>
  <term_criteria><epsilon>1.1920928955078125e-007</epsilon>
    <iterations>1000</iterations></term_criteria>
  <var_all>900</var_all>
  <var_count>900</var_count>
  <class_count>2</class_count>
  <class_labels type_id="opencv-matrix">
    <rows>1</rows>
    <cols>2</cols>
    <dt>i</dt>
    <data>
      -1 1</data></class_labels>
  <sv_total>1</sv_total>
  <support_vectors>
    <_>
      2.32703472e-003 4.21834365e-003 1.52286724e-003 1.68564040e-002
      3.03224567e-002 2.40339618e-002 1.31680490e-002 6.68838806e-003
      -2.19529538e-004 2.09046574e-003 -1.39078368e-002 -2.36387700e-002
      2.30552834e-002 2.70576738e-002 2.34969407e-002 8.40281788e-003
      1.19763747e-004 -1.94485183e-003 1.67636462e-002 -4.28205449e-003
      -3.36727910e-002 1.25417095e-002 2.74007060e-002 3.01635619e-002
      1.71253383e-002 1.58269163e-002 1.45186847e-002 -2.24394873e-002
      -9.04465839e-002 -9.86794010e-002 -2.26053726e-002 1.25407642e-002
      1.65481064e-002 1.89445226e-003 3.59432679e-003 -1.47806655e-003
      -2.01938469e-002 -5.99385425e-002 -3.63256782e-002 3.33994441e-002
      6.42760992e-002 3.11150197e-002 2.06944421e-002 1.89445000e-002
      1.92555245e-002 -4.64767553e-002 -5.71887307e-002 -2.55107135e-002
      2.79728081e-002 5.93537949e-002 2.73837540e-002 2.33859383e-002
      2.52328552e-002 2.85470090e-003 -1.30843781e-002 -4.50595878e-002
      -4.28082235e-002 2.52230614e-002 5.91412820e-002 2.46968567e-002
      7.46765931e-004 1.30821839e-002 2.68177148e-002 -1.84146110e-002
      -4.30732667e-002 -2.10744292e-002 1.24436636e-002 3.73406410e-002
      -5.54914493e-003 -7.08495453e-003 1.09698046e-002 1.69978868e-002
      -5.19833490e-002 2.14917702e-003 2.85606757e-002 3.10031381e-002
      3.26658487e-002 1.63467787e-002 2.09409203e-002 9.65551753e-003
      -4.16586846e-002 -2.82112956e-002 1.73522513e-002 2.48695258e-002
      3.16367834e-003 4.34822345e-004 6.74699247e-003 1.35944923e-002
      -1.15344515e-002 -3.29640582e-002 -5.58781717e-003 2.12153774e-002
      2.94452738e-002 1.63781494e-002 -6.96799159e-003 -2.15940946e-003
      1.00536784e-002 9.68302041e-003 -1.12593472e-002 1.39148273e-002
      2.94356309e-002 2.56424695e-002 -2.21294742e-002 -2.94147320e-002
      -2.42886040e-002 1.44191785e-002 -6.63296226e-003 -2.24965229e-003
      2.16972660e-002 2.21250430e-002 1.68937854e-002 4.14380245e-003
      3.65917683e-002 2.96310820e-002 -4.97977063e-003 -5.32575808e-002
      -2.88188625e-002 3.37957218e-002 3.22986506e-002 2.70089414e-002
      2.75901761e-002 6.00433126e-002 3.31468992e-002 -2.34427527e-002
      -5.51156774e-002 -1.22936843e-002 2.59229168e-002 2.42818780e-002
      -1.03989511e-003 -1.50414128e-002 1.84257068e-002 2.17429120e-002
      -3.11691388e-002 -4.17180769e-002 -1.53321223e-002 3.70296612e-002
      2.52131205e-002 3.99074517e-003 1.83695070e-002 4.73426245e-002
      1.99421160e-002 -6.17340878e-002 -6.02001101e-002 -1.27458246e-002
      2.28996277e-002 1.36947604e-002 8.16959701e-003 1.86717734e-002
      3.55680212e-002 1.35558564e-002 -5.09877093e-002 -5.64172976e-002
      9.22555383e-003 2.11667381e-002 1.09044993e-002 1.41826803e-002
      2.04869956e-002 2.83994284e-002 1.28317194e-003 -2.91887335e-002
      -1.85500532e-002 1.75010096e-002 2.91329660e-002 1.98881794e-002
      1.32605853e-002 2.26129536e-002 2.67743692e-002 -1.91311464e-002
      -8.18867162e-002 -7.82221854e-002 7.54454546e-003 2.45290138e-002
      1.60830822e-002 1.28630847e-002 2.34104935e-002 2.77898982e-002
      -1.84178557e-002 -6.42917678e-002 -4.33098041e-002 2.14341488e-002
      4.01522219e-002 4.22610249e-003 -6.67947531e-002 -4.76722978e-002
      2.91604623e-002 3.21302228e-002 1.90033689e-002 1.89796556e-002
      3.78071256e-002 4.17008288e-002 -4.10042936e-003 -6.61640838e-002
      -4.40944061e-002 2.64796801e-002 1.67623777e-002 -8.62690527e-003
      4.57006786e-003 3.40323150e-002 3.60554345e-002 1.23760998e-002
      -5.53419404e-002 -4.87905443e-002 6.97668223e-003 2.51959339e-002
      1.26928790e-002 5.95526444e-003 2.47690435e-002 2.99211778e-002
      1.72992423e-002 -3.87539230e-002 -3.09571642e-002 2.32438855e-002
      2.01293062e-002 -2.14346889e-002 -2.20952891e-002 4.66639502e-003
      2.05395631e-002 8.91499314e-003 4.46671562e-004 9.39065404e-003
      4.73197252e-002 6.88199792e-003 -5.39831817e-002 -3.82333621e-002
      2.53585074e-002 3.03213838e-002 1.65312700e-002 6.55246619e-003
      2.26462428e-002 4.15461287e-002 -8.32031202e-003 -4.61197607e-002
      -2.57112645e-002 3.27506326e-002 2.27142107e-002 8.56860448e-003
      -2.77592381e-003 1.14039239e-002 5.64322956e-002 1.36818327e-002
      -4.23017181e-002 -4.78055812e-002 8.84779077e-003 2.98163574e-002
      1.18775135e-002 6.94239498e-005 1.78332031e-002 4.75462414e-002
      -3.06967669e-003 -4.16037142e-002 -3.99762765e-002 2.08413005e-002
      3.16472799e-002 1.44096501e-002 9.22650006e-003 6.34915987e-003
      -4.34145704e-003 -2.17461847e-002 -9.24362522e-003 1.34013277e-002
      2.89607346e-002 2.67661288e-002 9.94341820e-003 2.00598594e-003
      -1.62982196e-002 -2.04129145e-002 -3.42010036e-002 5.31948032e-003
      5.76742645e-003 1.52307944e-002 2.04051286e-002 1.05214389e-002
      -7.32375265e-005 3.76033131e-003 1.50428107e-002 -1.71699580e-002
      -1.44388294e-002 -7.92382564e-003 9.56667587e-003 5.38564799e-003
      3.69585375e-003 5.63163194e-004 -1.16271870e-002 -1.67900568e-003
      -2.27963142e-002 -9.66963544e-003 -1.90808717e-002
      -1.05959866e-002 2.52320431e-002 -1.17135542e-002 -4.04666923e-002
      -4.08097841e-002 3.43284756e-002 1.95440426e-002 1.37903625e-002
      1.41783236e-002 3.03046592e-002 3.67261209e-002 -3.20341811e-002
      -5.04105687e-002 -9.27417539e-004 5.49864434e-002 3.49271297e-002
      1.43103162e-002 1.99059788e-002 5.23054600e-002 5.37800463e-003
      -4.48729806e-002 -4.33505438e-002 -2.65924390e-002 4.57743891e-002
      2.97031421e-002 3.12525481e-002 3.09044197e-002 2.69822404e-002
      1.44687984e-002 -5.95253669e-002 -6.15131259e-002 9.37298406e-003
      5.95022999e-002 4.41774428e-002 3.14998254e-002 4.22798283e-002
      5.11426218e-002 1.28453439e-002 -1.01467352e-002 -2.97598517e-003
      2.32257489e-002 3.82724218e-002 -3.44805457e-002 -4.95406836e-002
      3.65155097e-003 2.66721658e-002 2.55424436e-002 1.23963477e-002
      2.16279235e-002 3.71143408e-002 4.00492810e-002 -3.55327539e-002
      -5.96010983e-002 2.30147690e-002 3.65834907e-002 8.29621311e-003
      -1.68452561e-002 -4.41986183e-003 2.26674359e-002 1.27109019e-002
      -4.49666008e-002 -4.34981026e-002 7.73783680e-003 2.22706255e-002
      2.25572195e-002 7.97671732e-003 1.29684890e-002 2.23065782e-002
      -7.64385704e-003 -5.75301349e-002 -5.90507202e-002 1.84696969e-002
      3.19972970e-002 1.36086550e-002 1.01552512e-002 3.19215958e-003
      -3.95984277e-002 -3.79351415e-002 -5.06797223e-004 1.68682486e-002
      9.83569492e-003 4.34744358e-003 -1.07552605e-002 1.20080449e-002
      1.71035714e-002 -8.28103162e-003 1.21184066e-003 6.43560104e-003
      1.58803519e-002 2.96120270e-004 -1.99428480e-002 1.53799811e-002
      2.03085765e-002 1.91032495e-002 -1.83025356e-002 -3.38789485e-002
      -3.17823924e-002 1.47285266e-002 1.92473959e-002 1.96839664e-002
      -1.73551962e-002 3.63395363e-003 2.15684436e-002 7.95295648e-003
      -1.99801172e-003 -1.36178611e-002 1.45497359e-002 2.33346242e-002
      -7.50031183e-003 -1.52235823e-002 4.65243240e-004 1.64751504e-002
      1.63003746e-002 3.92333418e-002 8.74094199e-003 3.69660044e-003
      -1.27447080e-002 -1.76993869e-002 -1.18781487e-002
      -1.03975395e-002 1.22783997e-004 -4.54120862e-004 1.69643704e-002
      -1.26748970e-002 -2.66045015e-002 -2.53470168e-002
      -1.15222726e-002 -2.05534119e-002 -1.78614762e-002 6.50495815e-004
      1.11474749e-002 2.74063479e-002 -3.72119248e-003 6.16741460e-003
      1.17297405e-002 2.69458978e-003 -1.83619633e-002 -2.44520810e-002
      -1.00202924e-002 -9.84806567e-003 6.59641286e-004 -2.07726099e-002
      -1.79139357e-002 -1.21070258e-002 -6.12398889e-003 3.25234025e-003
      -1.27217397e-002 -3.03624403e-002 -2.83899568e-002 1.88680049e-002
      -2.88493372e-003 -2.17999648e-002 -3.18623334e-002
      -7.13259680e-003 1.04329204e-002 -1.15351249e-002 -2.09168512e-002
      -1.61536951e-002 1.46285426e-002 -1.65682039e-004 -4.60205041e-003
      -1.61685273e-002 -2.34221574e-003 -1.04059558e-002
      -2.09708344e-002 -2.58339848e-002 -1.51237892e-002 1.27095431e-002
      -1.19977873e-002 -1.70963686e-002 -2.09721830e-002
      -1.73491775e-003 -5.12803163e-005 -1.84010081e-002
      -2.44982373e-002 -1.60756018e-002 6.39831787e-003 -8.01750924e-003
      -1.03068696e-002 -1.14127677e-002 4.34092525e-003 -3.44868889e-003
      -2.66596247e-002 -2.34387144e-002 -8.39364436e-003 3.13552618e-002
      -8.35674058e-004 -2.36266684e-002 -2.64133886e-002
      -4.36093565e-003 -1.42403003e-002 -2.14149766e-002
      -1.81494979e-003 2.11552866e-002 4.28585596e-002 1.18608354e-002
      2.49901175e-004 -8.29859823e-003 -1.28947487e-002 -1.59426555e-002
      -1.02712894e-002 -4.46686242e-003 6.85866806e-004 2.77383290e-002
      -9.28897038e-003 -2.46831626e-002 -3.56620699e-002
      -2.71070898e-002 -1.07136723e-002 -6.85228454e-003 2.34263521e-002
      2.63790078e-002 4.42777611e-002 1.09553505e-002 -1.66534283e-003
      -2.42556334e-002 -2.97770910e-002 7.66553031e-003 7.43061397e-003
      1.60915628e-002 -4.98530688e-003 -3.87734026e-002 -2.97558215e-002
      6.07288582e-003 1.98507160e-002 1.26714027e-002 2.60611493e-002
      1.31120579e-002 1.79361328e-002 -1.39831584e-002 -3.58532481e-002
      -4.47234027e-002 1.13813151e-002 2.32318081e-002 3.16492133e-002
      -2.61422666e-003 3.52456444e-003 1.67378280e-002 -1.34025770e-003
      -4.47170716e-003 3.88274482e-003 1.56050343e-002 6.82772929e-003
      -1.06809279e-002 6.66002464e-003 7.29142735e-003 1.49729671e-002
      -2.23882012e-002 -2.45928969e-002 -3.09219072e-003 2.38114446e-002
      1.33899963e-002 8.86490103e-003 2.13701595e-002 1.47166457e-002
      1.85477268e-002 1.43827526e-002 4.93655726e-003 -5.22135645e-002
      -5.13974540e-002 4.12579998e-003 2.56879441e-002 7.98844639e-003
      -6.16436917e-003 5.36308205e-003 1.57878231e-002 2.49682479e-002
      -2.78440714e-002 -3.38575691e-002 3.93776363e-003 2.40320787e-002
      4.01384644e-002 1.52556738e-002 1.74216907e-002 2.07437426e-002
      2.39934400e-002 -3.82958949e-002 -5.67562282e-002 9.68190376e-003
      3.98580916e-002 2.12293770e-002 -2.81346194e-003 6.08402723e-003
      2.23182160e-002 3.43490615e-002 -3.50103565e-002 -5.85592352e-002
      -2.03978177e-002 3.25818062e-002 3.09238996e-004 -4.84380536e-002
      -4.10745367e-002 1.78421438e-002 5.30792437e-002 1.57168768e-002
      4.89998609e-004 5.84848365e-003 2.24652756e-002 8.19900632e-003
      -3.82641107e-002 -3.88103835e-002 -1.49806337e-002 2.69916840e-002
      7.84213189e-003 -8.42614938e-003 -1.40708021e-003 1.25905611e-002
      2.48135105e-002 -4.15153950e-002 -2.76763234e-002 1.08754337e-002
      5.83692752e-002 2.62607727e-002 -5.51273907e-003 -1.48775987e-003
      3.18346843e-002 3.65977623e-002 -1.49436286e-002 -3.92749645e-002
      -4.39547487e-002 2.41820309e-002 1.99733954e-002 6.17044419e-003
      4.76622023e-003 3.59100774e-002 5.82020124e-003 3.93778505e-003
      -1.28818303e-002 -1.14578893e-002 2.11476954e-003 -5.14645502e-003
      -6.06742734e-003 -7.81233003e-003 -8.07708502e-003
      -1.98283489e-003 1.38955913e-003 -1.95469032e-003 -6.20792620e-003
      -1.23686064e-002 -2.83373836e-002 -3.04751676e-002
      -2.06359383e-002 -1.47826597e-002 5.57724060e-003 1.26976324e-002
      -1.12357792e-002 -2.42362246e-002 -5.64437406e-003
      -2.68833037e-003 6.78325258e-003 8.57471488e-003 -1.38105825e-003
      1.23268031e-002 2.04689652e-002 1.96549427e-002 1.30011595e-003
      -1.08990045e-002 -2.88744196e-002 -2.21567973e-002
      -9.58996709e-004 1.19468514e-002 2.64434572e-002 1.63192302e-002
      5.94368624e-003 1.65946782e-002 3.62513326e-002 -2.83663534e-002
      -6.55175000e-002 -2.09080391e-002 1.11208931e-002 3.09611075e-002
      2.08686404e-002 1.28476871e-002 2.85156295e-002 4.84628677e-002
      1.14823245e-002 -3.51932831e-002 -3.97820733e-002 1.01958918e-004
      5.07478565e-002 1.67483725e-002 8.96362402e-003 2.54999697e-002
      3.18006761e-002 -4.21494693e-002 -6.41652569e-002 -1.39361070e-002
      4.41271588e-002 4.69756760e-002 -5.08896029e-003 -2.19795965e-002
      1.08201811e-002 4.56059836e-002 2.10803142e-003 -5.57980165e-002
      -1.62625983e-002 4.22540084e-002 1.89517699e-002 5.61177079e-003
      -4.96766977e-002 -2.63656639e-002 4.18400355e-002 1.96865611e-002
      9.05926572e-004 -7.33694620e-003 9.53741372e-003 2.62870137e-002
      2.24687997e-002 -4.91916463e-002 -5.05085513e-002 1.17064109e-002
      2.15428714e-002 1.44601855e-002 8.60921852e-003 2.18157656e-002
      2.97740195e-002 -2.31171958e-002 -7.62930810e-002 -3.93498838e-002
      3.81192155e-002 1.88101660e-002 1.26959747e-002 1.11045511e-002
      2.68842671e-002 3.86802964e-002 9.81448498e-003 -6.67563006e-002
      -5.48452847e-002 2.25275997e-002 2.75050458e-002 2.64370497e-002
      2.23799031e-002 3.95754799e-002 2.02555731e-002 2.00909711e-002
      1.84685588e-002 3.23277600e-002 3.81057486e-002 5.55657968e-003
      -6.60331771e-002 -2.08840538e-002 1.75260790e-002 2.32218560e-002
      2.37620343e-002 2.74212547e-002 3.98715660e-002 4.25297990e-002
      -2.08789427e-002 -8.95092487e-002 -8.78766179e-002 1.65547505e-002
      1.79950371e-002 2.09425148e-002 1.83710996e-002 2.88627930e-002
      3.38940099e-002 8.41038860e-003 -2.40487996e-002 -1.84655823e-002
      1.26613816e-002 2.08840333e-002 2.53451429e-002 2.90214736e-002
      4.06748950e-002 4.80979234e-002 1.96500272e-002 -6.72462210e-002
      -5.88628612e-002 1.17210178e-002 3.05637401e-002 8.54455307e-003
      -4.66913171e-003 1.05092740e-002 4.54847552e-002 1.79273076e-002
      -5.50616719e-002 -6.60153031e-002 -8.02348834e-003 2.08024960e-002
      6.16873428e-003 -1.63014866e-002 -7.21797114e-003 3.49985920e-002
      1.87556874e-002 -1.68933757e-002 -4.36861850e-002 -1.57931950e-002
      3.77328731e-002 2.88836379e-002 1.92896388e-002 2.61775907e-002
      5.29615469e-002 3.26188952e-002 -3.13442163e-002 -6.10055216e-002
      -1.52540971e-002 2.62246076e-002 2.65417546e-002 2.02979408e-002
      2.07071975e-002 5.21355942e-002 3.52995247e-002 -1.82719599e-003
      -5.24275340e-002 -3.11809257e-002 -1.98507439e-002 1.74778625e-002
      2.08903737e-002 -6.44893991e-003 6.47202972e-003 1.26310131e-002
      1.51484720e-002 4.68313601e-003 -2.91202273e-002 -3.04862093e-002
      2.54363916e-003 2.18537524e-002 2.21246434e-003 6.50512706e-003
      -7.67260371e-003 8.36857315e-003 1.40556078e-002 -1.80737618e-002
      -3.93802412e-002 1.93108600e-002 2.74915248e-002 2.22916268e-002
      3.28723937e-002 2.16917507e-002 1.79854948e-002 -3.59543390e-003
      -5.78170195e-002 -4.77532633e-002 -1.41247660e-002 2.14888807e-002
      1.54281817e-002 2.77666040e-002 1.33105572e-002 2.14321390e-002
      2.10457649e-002 -4.51612622e-002 -1.72675941e-002 -3.54582556e-002
      -4.62836679e-003 1.46829477e-002 1.48114515e-002 -2.16915309e-002
      -2.17717271e-002 -3.67996190e-003 8.47217813e-003 -1.59520991e-002
      -5.10508865e-002 -3.98606472e-002 1.21920416e-002 3.73018757e-002
      3.16503271e-003 -7.75132701e-003 -1.89315353e-003 2.11550295e-002
      -4.31576744e-002 -5.39085604e-002 5.14896587e-003 2.55875792e-002
      3.31125408e-002 6.32256735e-003 5.47587685e-003 1.49126984e-002
      6.50718715e-003 -3.53560783e-002 -5.46360388e-002 -1.52388699e-002
      3.09309214e-002 5.43535426e-002 3.45380120e-002 2.68480144e-002
      2.59434991e-002 2.72944961e-002 3.10491933e-003 -9.05523747e-002
      -9.74735543e-002 -2.53442675e-002 3.78973745e-002 2.44223662e-002
      1.61573961e-002 1.48324398e-002 1.24436431e-002 3.04534510e-002
      -1.77650098e-002 -6.88724443e-002 -5.63793397e-003 3.84453908e-002
      3.03372592e-002 2.72087101e-002 2.18600463e-002 2.59712059e-002
      1.25294188e-002 -4.05115038e-002 -5.50060421e-002 1.49931218e-002
      4.80589010e-002 3.33708785e-002 2.77904496e-002 2.24162340e-002
      2.16458999e-002 1.43480860e-002 -2.32362710e-002 -2.78931148e-002
      9.05143097e-003 3.29387411e-002 2.85587311e-002 2.74974238e-002
      2.00052243e-002 2.19818372e-002</_></support_vectors>
  <decision_functions>
    <_>
      <sv_count>1</sv_count>
      <rho>-6.1493869073015439e-001</rho>
      <alpha>
        1.</alpha>
      <index>
        0</index></_></decision_functions></my_svm>
</opencv_storage>
